digraph Tree {
node [shape=box] ;
0 [label="X[2] <= 3.601\ngini = 0.667\nsamples = 149\nvalue = [49, 50, 50]"] ;
1 [label="X[1] <= 3.017\ngini = 0.194\nsamples = 55\nvalue = [49, 6, 0]"] ;
0 -> 1 [labeldistance=2.5, labelangle=45, headlabel="True"] ;
2 [label="X[2] <= 2.422\ngini = 0.497\nsamples = 13\nvalue = [7, 6, 0]"] ;
1 -> 2 ;
3 [label="gini = 0.0\nsamples = 7\nvalue = [7, 0, 0]"] ;
2 -> 3 ;
4 [label="gini = 0.0\nsamples = 6\nvalue = [0, 6, 0]"] ;
2 -> 4 ;
5 [label="gini = 0.0\nsamples = 42\nvalue = [42, 0, 0]"] ;
1 -> 5 ;
6 [label="X[3] <= 1.661\ngini = 0.498\nsamples = 94\nvalue = [0, 44, 50]"] ;
0 -> 6 [labeldistance=2.5, labelangle=-45, headlabel="False"] ;
7 [label="X[0] <= 6.93\ngini = 0.159\nsamples = 46\nvalue = [0, 42, 4]"] ;
6 -> 7 ;
8 [label="X[3] <= 1.395\ngini = 0.127\nsamples = 44\nvalue = [0, 41, 3]"] ;
7 -> 8 ;
9 [label="gini = 0.0\nsamples = 22\nvalue = [0, 22, 0]"] ;
8 -> 9 ;
10 [label="X[2] <= 5.34\ngini = 0.236\nsamples = 22\nvalue = [0, 19, 3]"] ;
8 -> 10 ;
11 [label="gini = 0.172\nsamples = 21\nvalue = [0, 19, 2]"] ;
10 -> 11 ;
12 [label="gini = 0.0\nsamples = 1\nvalue = [0, 0, 1]"] ;
10 -> 12 ;
13 [label="X[2] <= 5.745\ngini = 0.5\nsamples = 2\nvalue = [0, 1, 1]"] ;
7 -> 13 ;
14 [label="gini = 0.0\nsamples = 1\nvalue = [0, 1, 0]"] ;
13 -> 14 ;
15 [label="gini = 0.0\nsamples = 1\nvalue = [0, 0, 1]"] ;
13 -> 15 ;
16 [label="X[3] <= 2.136\ngini = 0.08\nsamples = 48\nvalue = [0, 2, 46]"] ;
6 -> 16 ;
17 [label="X[2] <= 5.416\ngini = 0.124\nsamples = 30\nvalue = [0, 2, 28]"] ;
16 -> 17 ;
18 [label="X[3] <= 1.732\ngini = 0.219\nsamples = 16\nvalue = [0, 2, 14]"] ;
17 -> 18 ;
19 [label="gini = 0.5\nsamples = 2\nvalue = [0, 1, 1]"] ;
18 -> 19 ;
20 [label="gini = 0.133\nsamples = 14\nvalue = [0, 1, 13]"] ;
18 -> 20 ;
21 [label="gini = 0.0\nsamples = 14\nvalue = [0, 0, 14]"] ;
17 -> 21 ;
22 [label="gini = 0.0\nsamples = 18\nvalue = [0, 0, 18]"] ;
16 -> 22 ;
}